digraph Tree {
node [shape=box, style="filled", color="black"] ;
0 [label="x2 <= 1.355\nentropy = 1.0\nsamples = 200\nvalue = [100, 100]", fillcolor="#e5813900"] ;
1 [label="x1 <= 0.832\nentropy = 0.643\nsamples = 110\nvalue = [92, 18]", fillcolor="#e58139cd"] ;
0 -> 1 [labeldistance=2.5, labelangle=45, headlabel="True"] ;
2 [label="x1 <= 0.375\nentropy = 0.109\nsamples = 69\nvalue = [68, 1]", fillcolor="#e58139fb"] ;
1 -> 2 ;
3 [label="entropy = 0.0\nsamples = 57\nvalue = [57, 0]", fillcolor="#e58139ff"] ;
2 -> 3 ;
4 [label="entropy = 0.414\nsamples = 12\nvalue = [11, 1]", fillcolor="#e58139e8"] ;
2 -> 4 ;
5 [label="x2 <= -0.031\nentropy = 0.979\nsamples = 41\nvalue = [24, 17]", fillcolor="#e581394a"] ;
1 -> 5 ;
6 [label="entropy = 0.0\nsamples = 14\nvalue = [14, 0]", fillcolor="#e58139ff"] ;
5 -> 6 ;
7 [label="entropy = 0.951\nsamples = 27\nvalue = [10, 17]", fillcolor="#399de569"] ;
5 -> 7 ;
8 [label="x1 <= 0.452\nentropy = 0.433\nsamples = 90\nvalue = [8, 82]", fillcolor="#399de5e6"] ;
0 -> 8 [labeldistance=2.5, labelangle=-45, headlabel="False"] ;
9 [label="x2 <= 1.756\nentropy = 0.764\nsamples = 9\nvalue = [7, 2]", fillcolor="#e58139b6"] ;
8 -> 9 ;
10 [label="entropy = 0.0\nsamples = 6\nvalue = [6, 0]", fillcolor="#e58139ff"] ;
9 -> 10 ;
11 [label="entropy = 0.918\nsamples = 3\nvalue = [1, 2]", fillcolor="#399de57f"] ;
9 -> 11 ;
12 [label="x1 <= 1.015\nentropy = 0.096\nsamples = 81\nvalue = [1, 80]", fillcolor="#399de5fc"] ;
8 -> 12 ;
13 [label="entropy = 0.469\nsamples = 10\nvalue = [1, 9]", fillcolor="#399de5e3"] ;
12 -> 13 ;
14 [label="entropy = 0.0\nsamples = 71\nvalue = [0, 71]", fillcolor="#399de5ff"] ;
12 -> 14 ;
}